{
    "model_state": {
        "l1.weight": [
            [
                0.2963630259037018,
                0.6915820837020874,
                0.8099445104598999,
                0.2072741687297821,
                0.3725711703300476,
                0.4314750134944916,
                0.17216217517852783,
                -0.013471140526235104,
                -0.5411123633384705,
                0.33437588810920715,
                -0.6375858187675476,
                0.46477171778678894,
                0.47008049488067627,
                0.5468168258666992,
                0.5369232892990112,
                0.6440273523330688,
                -0.5325409173965454,
                -0.3757021725177765,
                -0.26193884015083313,
                0.4100809097290039,
                0.037266410887241364,
                0.36267268657684326,
                0.3438877761363983,
                0.21890687942504883,
                -0.2512422800064087,
                -0.6374027132987976,
                0.6222285032272339,
                -0.6309799551963806,
                0.5395416617393494,
                0.773438572883606,
                -0.5980386137962341,
                0.8112122416496277,
                1.103568434715271,
                0.28874021768569946,
                -0.2861975431442261,
                1.0136044025421143,
                1.17550790309906,
                0.3006778359413147,
                -0.24273522198200226,
                0.17649978399276733,
                -0.4711998403072357,
                0.4245317578315735,
                0.4334200620651245,
                -0.23868325352668762,
                -0.3452552258968353,
                -0.28545433282852173,
                0.8394013047218323,
                0.28587108850479126,
                0.4020456373691559,
                -0.6226674318313599,
                0.3588215112686157,
                0.40925851464271545,
                0.6394871473312378,
                0.4986230432987213,
                0.33809107542037964,
                0.02816593274474144,
                0.8837090134620667,
                0.4731508791446686,
                0.11455771327018738,
                0.40610843896865845,
                0.8344715237617493,
                0.5389901995658875,
                0.2980903387069702,
                -0.09342045336961746,
                0.37207651138305664,
                -0.4001771807670593,
                -0.4669802784919739,
                0.22526834905147552,
                0.24178661406040192,
                0.405658096075058,
                -0.6351665258407593,
                -0.04218505322933197,
                -0.5368037223815918,
                0.5934862494468689,
                -0.6504523754119873,
                0.2817685902118683,
                -0.2103499323129654,
                0.8419575691223145,
                0.6054580211639404,
                0.25151288509368896,
                0.6989441514015198,
                0.4872830808162689,
                0.35687246918678284,
                -0.11549454927444458,
                0.24892836809158325,
                0.34930703043937683,
                0.37551891803741455,
                0.42637068033218384,
                0.4875921607017517,
                0.4862787425518036,
                0.12468243390321732,
                0.4693708121776581,
                -0.3491035997867584
            ],
            [
                -0.015574617311358452,
                0.35028645396232605,
                0.571285605430603,
                0.5443540215492249,
                -0.255144864320755,
                -0.22994466125965118,
                -0.191281259059906,
                -0.19735142588615417,
                -0.2924032211303711,
                0.09340357780456543,
                0.2927725911140442,
                0.3003172278404236,
                0.5153544545173645,
                0.4886315166950226,
                0.2406916469335556,
                -0.31159961223602295,
                -0.5727147459983826,
                -0.9107204079627991,
                0.499194860458374,
                0.07506467401981354,
                -0.5135425329208374,
                -0.06356389075517654,
                0.3085497319698334,
                0.42115089297294617,
                -0.1823599487543106,
                0.45860594511032104,
                -0.22420087456703186,
                0.4407658278942108,
                -0.19686771929264069,
                -0.3818771243095398,
                0.4070124924182892,
                0.8139528036117554,
                -0.6055469512939453,
                -0.4544856548309326,
                -0.03329150006175041,
                -0.6054261922836304,
                -0.6054629683494568,
                -0.6180883049964905,
                0.6695379614830017,
                0.017049722373485565,
                0.05924225226044655,
                -0.23234476149082184,
                -0.22099541127681732,
                -0.28992828726768494,
                0.19456155598163605,
                -0.022464781999588013,
                0.5790269374847412,
                -0.15403801202774048,
                -0.09051322937011719,
                0.4413425326347351,
                0.8506582379341125,
                0.2604338228702545,
                -0.22412043809890747,
                -0.2261461764574051,
                0.3510047197341919,
                -0.4112388789653778,
                0.7221130132675171,
                0.3837033808231354,
                0.9535919427871704,
                0.23461474478244781,
                0.1341712921857834,
                0.42137667536735535,
                0.4248903691768646,
                0.5604225993156433,
                0.35868173837661743,
                -0.4210762083530426,
                0.3484137952327728,
                0.6746051907539368,
                -0.017090413719415665,
                0.27737751603126526,
                -0.5577589273452759,
                0.8481917381286621,
                -0.007208684459328651,
                -0.2939472198486328,
                -0.09892503172159195,
                -0.1988428831100464,
                0.03440674766898155,
                -0.5174362659454346,
                -0.08924926817417145,
                0.47354990243911743,
                -0.11827964335680008,
                0.34137800335884094,
                0.030895773321390152,
                0.126034215092659,
                0.43127575516700745,
                0.1796538233757019,
                0.42248407006263733,
                -0.3599488139152527,
                0.3075034022331238,
                -0.29277780652046204,
                0.012437701225280762,
                0.05231071263551712,
                -0.3984104096889496
            ],
            [
                -0.5853764414787292,
                0.49508753418922424,
                -0.7287212610244751,
                -0.0373084731400013,
                0.39757856726646423,
                -0.1707392781972885,
                -0.4287693202495575,
                -0.2936791479587555,
                -0.13914494216442108,
                0.3647998571395874,
                0.6396231055259705,
                -0.08785413950681686,
                0.16577337682247162,
                0.5203792452812195,
                0.4914253354072571,
                0.561044454574585,
                -0.07392104715108871,
                -0.5718293190002441,
                -0.20438699424266815,
                0.057009197771549225,
                0.6334432363510132,
                0.3699045181274414,
                0.04738866537809372,
                0.32924917340278625,
                0.06140007823705673,
                -0.1609901487827301,
                0.40140148997306824,
                0.797551691532135,
                -0.09340697526931763,
                0.7158550024032593,
                0.8382598161697388,
                0.09504953771829605,
                0.6417136192321777,
                -0.21559111773967743,
                -0.09217270463705063,
                0.7823399901390076,
                0.6035659909248352,
                -0.3581419587135315,
                0.0464697889983654,
                -0.12289298325777054,
                0.4398748576641083,
                0.2616434693336487,
                -0.26126617193222046,
                0.02515491656959057,
                0.5312298536300659,
                0.5059972405433655,
                -0.7676978707313538,
                0.33401796221733093,
                0.0388161838054657,
                0.23099230229854584,
                -0.1901252120733261,
                0.20384326577186584,
                0.5283071994781494,
                0.025659844279289246,
                0.10424484312534332,
                -0.2178657352924347,
                0.1971367597579956,
                0.4111173748970032,
                -0.3950962722301483,
                0.33512815833091736,
                0.6535657644271851,
                0.37843403220176697,
                -0.051155511289834976,
                -0.013234671205282211,
                -0.24573568999767303,
                0.05771438032388687,
                0.3641663193702698,
                -0.2353067845106125,
                0.48105040192604065,
                -0.46891799569129944,
                0.0529707632958889,
                0.5140610933303833,
                -0.218296080827713,
                0.5616760849952698,
                -0.07856417447328568,
                0.3707083761692047,
                0.28557100892066956,
                -0.4546211361885071,
                -0.2497451901435852,
                0.05571364983916283,
                0.6271779537200928,
                -0.14500659704208374,
                0.6619912385940552,
                0.2725467085838318,
                -0.06858813017606735,
                0.2213398516178131,
                0.08565481007099152,
                -0.22572733461856842,
                -0.03772132471203804,
                -0.0846514105796814,
                -0.28456997871398926,
                0.14625418186187744,
                -0.16190429031848907
            ],
            [
                0.4928261637687683,
                -0.4629669487476349,
                0.850448489189148,
                0.1852777898311615,
                -0.27706342935562134,
                0.4510685205459595,
                0.6489497423171997,
                0.41101735830307007,
                -0.12930943071842194,
                -0.14836445450782776,
                -0.6007970571517944,
                0.298442542552948,
                0.06626081466674805,
                -0.047307804226875305,
                -0.41837725043296814,
                -0.17551381886005402,
                -0.29553356766700745,
                0.9017558693885803,
                0.011868897825479507,
                0.33351823687553406,
                0.2162521481513977,
                0.5719196796417236,
                0.1089063510298729,
                0.03810806944966316,
                -0.08568035066127777,
                -0.46848902106285095,
                -0.17300857603549957,
                -0.5806296467781067,
                0.05674823001027107,
                -0.3980761468410492,
                -0.6409103870391846,
                -0.4923994243144989,
                -0.5589585900306702,
                0.4342818260192871,
                -0.12419715523719788,
                -0.5870015621185303,
                -0.5756470561027527,
                0.9072328805923462,
                0.33356529474258423,
                0.16007624566555023,
                -0.28440430760383606,
                0.05368012934923172,
                0.5468553304672241,
                0.0020862314850091934,
                -0.6384375095367432,
                -0.3754900395870209,
                0.7835878729820251,
                0.3790103793144226,
                0.3346351683139801,
                -0.2545788586139679,
                -0.7037337422370911,
                0.07396315038204193,
                -0.11482586711645126,
                -0.0474952831864357,
                0.0031287940219044685,
                0.8263123035430908,
                -0.2351805716753006,
                -0.0831182524561882,
                0.4568796753883362,
                -0.15531370043754578,
                -0.17448605597019196,
                0.07044067233800888,
                0.19695185124874115,
                0.2946365475654602,
                0.30476078391075134,
                -0.21971455216407776,
                -0.4094334840774536,
                -0.3741074502468109,
                0.5799065232276917,
                0.732197642326355,
                0.09313914179801941,
                -0.1782064288854599,
                -0.22305236756801605,
                -0.35560423135757446,
                -0.23010843992233276,
                0.5134022831916809,
                -0.3081885874271393,
                0.8160922527313232,
                0.6219553351402283,
                -0.12295999377965927,
                -0.28014472126960754,
                0.13681277632713318,
                0.6769882440567017,
                -0.05824454501271248,
                0.3360525071620941,
                -0.814322829246521,
                0.006267320364713669,
                0.4712877869606018,
                -0.11543304473161697,
                -0.06291929632425308,
                0.6302393078804016,
                0.5133412480354309,
                0.09725305438041687
            ],
            [
                0.0881541520357132,
                -0.5566608309745789,
                -0.7244760394096375,
                -0.03255349025130272,
                0.2545509934425354,
                -0.39277946949005127,
                0.13699519634246826,
                0.1526307314634323,
                0.7781924605369568,
                -0.29450666904449463,
                0.48391059041023254,
                -0.3795086741447449,
                -0.4276852011680603,
                -0.32916757464408875,
                -0.42183348536491394,
                0.2477128803730011,
                0.7356467247009277,
                -0.11173917353153229,
                0.7884061336517334,
                -0.02925170212984085,
                0.909509539604187,
                0.6879871487617493,
                0.16844318807125092,
                0.5392594933509827,
                0.4328667223453522,
                0.6858794093132019,
                0.28040817379951477,
                0.507186233997345,
                0.48451390862464905,
                0.3884124159812927,
                0.5619996190071106,
                -0.22187310457229614,
                0.4139389991760254,
                0.035238344222307205,
                0.43229636549949646,
                0.39924997091293335,
                0.47758033871650696,
                0.28686895966529846,
                0.4717782139778137,
                0.6556063890457153,
                0.4091118276119232,
                0.2531554698944092,
                -0.3317895829677582,
                0.5308120250701904,
                0.44310128688812256,
                0.34124547243118286,
                -0.7244190573692322,
                0.3074946105480194,
                -0.10395849496126175,
                0.33266037702560425,
                0.4601614475250244,
                -0.30945467948913574,
                0.2238631546497345,
                0.5229151248931885,
                0.24790659546852112,
                0.39114853739738464,
                -0.24265310168266296,
                -0.17084389925003052,
                0.5621423721313477,
                -0.26917922496795654,
                -0.3687792420387268,
                -0.19117465615272522,
                0.14075115323066711,
                0.4301028549671173,
                -0.28243446350097656,
                0.6038575172424316,
                0.30427050590515137,
                0.14388106763362885,
                0.5924442410469055,
                -0.45897746086120605,
                0.679619312286377,
                -0.5893449187278748,
                0.706744909286499,
                0.25751516222953796,
                0.6303836703300476,
                0.22067320346832275,
                0.12710240483283997,
                -0.7245333194732666,
                -0.6251490712165833,
                0.264827698469162,
                0.29951539635658264,
                -0.2739146649837494,
                0.9074856042861938,
                0.47710803151130676,
                0.15712235867977142,
                0.4073786735534668,
                0.2365075945854187,
                0.5687544941902161,
                -0.24603551626205444,
                0.5483369827270508,
                0.26124536991119385,
                0.205100879073143,
                0.5718169808387756
            ],
            [
                -0.1585601568222046,
                -0.45566293597221375,
                -0.4819323718547821,
                0.21158717572689056,
                -0.0649849995970726,
                -0.21749244630336761,
                0.3167630136013031,
                0.4362155795097351,
                0.28240448236465454,
                -0.29737868905067444,
                0.678717315196991,
                -0.06601264327764511,
                -0.07337378710508347,
                -0.1515686959028244,
                -0.44127747416496277,
                -0.19740642607212067,
                -0.055212847888469696,
                0.6871337890625,
                0.4858158230781555,
                -0.0038909607101231813,
                0.28993213176727295,
                0.1779889315366745,
                0.21016830205917358,
                -0.0873466432094574,
                0.4139581024646759,
                -0.2153579145669937,
                -0.20227330923080444,
                0.7571365237236023,
                -0.36540138721466064,
                -0.2817288637161255,
                0.8685808181762695,
                -0.8531237840652466,
                -0.4839248061180115,
                -0.23846197128295898,
                0.4473007917404175,
                -0.4842252731323242,
                -0.48431065678596497,
                0.6843546032905579,
                0.5718980431556702,
                0.1415906399488449,
                0.2783777415752411,
                -0.1947140246629715,
                -0.22093592584133148,
                0.42674410343170166,
                0.3653855323791504,
                0.4506000280380249,
                -0.400579035282135,
                -0.1212918758392334,
                -0.06435118615627289,
                0.06257981061935425,
                -0.48392707109451294,
                0.009316686540842056,
                -0.20329979062080383,
                -0.2867129147052765,
                0.04686649143695831,
                0.720057487487793,
                -0.2695316970348358,
                -0.1530306190252304,
                0.35367438197135925,
                -0.10268479585647583,
                -0.2151605635881424,
                -0.17909254133701324,
                0.10714571923017502,
                0.5821095705032349,
                -0.03928447887301445,
                0.42000672221183777,
                0.39297977089881897,
                -0.173580139875412,
                0.20238696038722992,
                -0.06742541491985321,
                -0.07297384738922119,
                -0.33272817730903625,
                0.4532705843448639,
                -0.28844472765922546,
                0.48210272192955017,
                0.005146188195794821,
                0.23995788395404816,
                -0.36680659651756287,
                -0.24580498039722443,
                -0.06725560873746872,
                -0.22411485016345978,
                -0.024284139275550842,
                0.34741511940956116,
                0.46546998620033264,
                0.23065553605556488,
                -0.7086185216903687,
                -0.07462234050035477,
                0.3460328280925751,
                -0.2727770507335663,
                -0.3256632089614868,
                0.48989754915237427,
                0.20352695882320404,
                0.07463386654853821
            ],
            [
                0.23332399129867554,
                -0.31655964255332947,
                0.7693124413490295,
                0.43887796998023987,
                -0.33092254400253296,
                -0.19588345289230347,
                0.5829782485961914,
                0.29055437445640564,
                0.12643517553806305,
                -0.37454327940940857,
                -0.5135526657104492,
                0.45657432079315186,
                0.5704008936882019,
                -0.33962589502334595,
                -0.41760963201522827,
                -0.2599893808364868,
                -0.14474859833717346,
                0.30067241191864014,
                0.4617570638656616,
                -0.07404988259077072,
                -0.190255805850029,
                0.16395382583141327,
                0.5268169045448303,
                0.18151582777500153,
                -0.15041708946228027,
                0.5208601355552673,
                -0.19480320811271667,
                -0.51362544298172,
                -0.31148502230644226,
                -0.3192905783653259,
                -0.5135807394981384,
                0.4942016899585724,
                -0.5136086344718933,
                -0.2499321699142456,
                -0.016220733523368835,
                -0.5135554075241089,
                -0.5135731101036072,
                0.2743930518627167,
                0.4420078992843628,
                0.18357443809509277,
                -0.25355589389801025,
                0.08992136269807816,
                -0.3178139328956604,
                0.04697280749678612,
                -0.4245370030403137,
                -0.2600984573364258,
                0.8135425448417664,
                -0.05415001139044762,
                -0.16790097951889038,
                0.4225805997848511,
                0.76866614818573,
                0.0036979378201067448,
                -0.19434748589992523,
                -0.3897036015987396,
                0.1936505138874054,
                0.19191941618919373,
                0.32404008507728577,
                0.0017774676671251655,
                0.9363914132118225,
                -0.3652265667915344,
                -0.5116032361984253,
                -0.057609766721725464,
                0.44451770186424255,
                0.7782396674156189,
                0.293834924697876,
                -0.069501131772995,
                -0.2622353434562683,
                0.4533838629722595,
                0.19100913405418396,
                0.3105127513408661,
                -0.07331055402755737,
                0.6365290880203247,
                0.25520655512809753,
                -0.25355762243270874,
                0.3776264488697052,
                -0.11272559314966202,
                -0.39316490292549133,
                -0.6127318143844604,
                -0.2642063796520233,
                0.061668090522289276,
                -0.2642344534397125,
                0.4059399962425232,
                0.23348715901374817,
                0.13343891501426697,
                0.34485867619514465,
                0.33199620246887207,
                0.08027555048465729,
                -0.15500663220882416,
                0.2973889410495758,
                -0.34755846858024597,
                0.46592164039611816,
                0.17314276099205017,
                0.1026926338672638
            ],
            [
                0.2510046064853668,
                -0.38246026635169983,
                -0.6900511980056763,
                0.08272871375083923,
                0.15363046526908875,
                0.3850730359554291,
                0.19210860133171082,
                0.33259427547454834,
                0.5922505855560303,
                -0.3046119511127472,
                0.9611955285072327,
                -0.20718981325626373,
                -0.2888720631599426,
                -0.22409334778785706,
                -0.28086477518081665,
                0.16884273290634155,
                0.6436736583709717,
                0.577982485294342,
                0.6369917392730713,
                0.30319246649742126,
                -0.6645439863204956,
                -0.35346221923828125,
                -0.2067788988351822,
                -0.14004522562026978,
                0.45363709330558777,
                0.011939729563891888,
                0.113873690366745,
                0.8048141598701477,
                -0.40843096375465393,
                0.3649759590625763,
                0.7123010158538818,
                -0.6402513384819031,
                0.47118476033210754,
                0.552223801612854,
                0.3247271776199341,
                0.4018522799015045,
                0.4794903099536896,
                0.43309637904167175,
                0.21359692513942719,
                0.2988505959510803,
                0.577044665813446,
                0.08873634040355682,
                0.3973161280155182,
                0.4466838538646698,
                0.6983210444450378,
                0.6392629742622375,
                -0.7204296588897705,
                -0.07679726183414459,
                0.3041706085205078,
                0.08745075762271881,
                -0.5761553049087524,
                -0.11477537453174591,
                0.16715191304683685,
                -0.36836308240890503,
                -0.06883172690868378,
                0.4366340935230255,
                -0.5581477880477905,
                -0.2850286662578583,
                0.12688416242599487,
                -0.1655736118555069,
                -0.12969182431697845,
                -0.25599345564842224,
                -0.011983431875705719,
                0.3916552662849426,
                -0.281684547662735,
                0.6465552449226379,
                0.6350978016853333,
                -0.2830899655818939,
                -0.35343846678733826,
                -0.2752867639064789,
                0.5219558477401733,
                -0.740690290927887,
                0.5302614569664001,
                0.3065795302391052,
                0.5791881084442139,
                -0.09169352054595947,
                0.459536612033844,
                0.6226863861083984,
                0.17312240600585938,
                -0.07080619037151337,
                0.23530495166778564,
                -0.3208966553211212,
                -0.41581016778945923,
                0.6234322190284729,
                0.07970692962408066,
                -0.03856317698955536,
                -0.09967616200447083,
                0.18280190229415894,
                -0.3097314238548279,
                -0.2763443887233734,
                0.3029528260231018,
                0.10225678980350494,
                0.4285856783390045
            ]
        ],
        "l1.bias": [
            1.2842844724655151,
            0.6055475473403931,
            0.802078902721405,
            0.7035071849822998,
            0.7245377898216248,
            0.4838757812976837,
            0.5135300755500793,
            0.7692663073539734
        ],
        "l2.weight": [
            [
                0.5942111611366272,
                -0.5694087743759155,
                1.5999723672866821,
                0.5404210686683655,
                0.20547817647457123,
                0.2182074785232544,
                -1.3075299263000488,
                -0.15366920828819275
            ],
            [
                1.0062484741210938,
                -0.16806328296661377,
                1.0309377908706665,
                -0.3852054476737976,
                -0.7662550806999207,
                -0.4462428689002991,
                -1.641279935836792,
                1.592474102973938
            ],
            [
                -0.1804599016904831,
                -0.9071066975593567,
                0.3122691214084625,
                1.540653109550476,
                1.8662692308425903,
                2.076531171798706,
                -0.08614909648895264,
                2.3265817165374756
            ],
            [
                -0.08728235960006714,
                -0.23409631848335266,
                -0.21141958236694336,
                -0.12934543192386627,
                -0.2200154811143875,
                0.1953347623348236,
                -0.12319624423980713,
                0.009359627962112427
            ],
            [
                2.027108907699585,
                -1.1072219610214233,
                0.8196679353713989,
                1.003519892692566,
                -0.1332850158214569,
                -1.0944198369979858,
                -0.17282654345035553,
                -0.5673678517341614
            ],
            [
                1.086511492729187,
                1.6289938688278198,
                -0.7290256023406982,
                1.4574542045593262,
                -0.6996500492095947,
                0.16361644864082336,
                1.420025110244751,
                -0.9562664031982422
            ],
            [
                0.30282333493232727,
                0.8430333733558655,
                1.7159621715545654,
                -1.3703737258911133,
                1.5632046461105347,
                -0.33867788314819336,
                -0.05087829381227493,
                0.33074384927749634
            ],
            [
                0.1502215564250946,
                -0.30403342843055725,
                -0.14241132140159607,
                -0.3680051267147064,
                -0.15565304458141327,
                0.16126391291618347,
                0.172658771276474,
                -0.12870728969573975
            ]
        ],
        "l2.bias": [
            0.3369848132133484,
            0.6653239130973816,
            0.5230770111083984,
            -0.06503966450691223,
            0.81482994556427,
            0.4630257487297058,
            0.4179103672504425,
            -0.1321769505739212
        ],
        "l3.weight": [
            [
                -1.8479161262512207,
                -2.1230106353759766,
                0.8454925417900085,
                -0.005390465259552002,
                -1.0435682535171509,
                -2.1003925800323486,
                0.8247734308242798,
                -0.00757825281471014
            ],
            [
                0.639430582523346,
                -1.5125335454940796,
                0.04228493571281433,
                0.034834206104278564,
                0.33684128522872925,
                -0.9412919878959656,
                0.07487993687391281,
                -0.16848723590373993
            ],
            [
                0.48913609981536865,
                0.5030276775360107,
                0.12498310208320618,
                -0.20806844532489777,
                -1.8734911680221558,
                -1.4790053367614746,
                0.6685064435005188,
                -0.11646691709756851
            ],
            [
                0.5045214295387268,
                0.494782030582428,
                -0.6025475263595581,
                -0.20239640772342682,
                0.5840444564819336,
                -2.3094522953033447,
                0.44172605872154236,
                -0.23590844869613647
            ],
            [
                -0.3807983696460724,
                -1.5986549854278564,
                0.8053549528121948,
                0.2704552710056305,
                -0.10154365003108978,
                -0.3975566327571869,
                -2.4610822200775146,
                0.271988183259964
            ],
            [
                -0.9719375967979431,
                -0.6787153482437134,
                -1.347581148147583,
                0.16904810070991516,
                0.6383993029594421,
                1.0378696918487549,
                -1.8455718755722046,
                -0.2044537514448166
            ],
            [
                -1.4065879583358765,
                -1.4192777872085571,
                -1.2817195653915405,
                0.2595207393169403,
                0.0701778307557106,
                0.336269736289978,
                1.041948914527893,
                0.14693337678909302
            ],
            [
                -1.2138274908065796,
                -1.2818247079849243,
                0.4928964078426361,
                0.1337025761604309,
                -1.8800612688064575,
                0.04953133687376976,
                -0.40889957547187805,
                0.10667560249567032
            ],
            [
                0.46909016370773315,
                0.6551223397254944,
                -1.9401028156280518,
                -0.08637237548828125,
                0.46484971046447754,
                -0.2522651255130768,
                0.05295174568891525,
                -0.2617070972919464
            ],
            [
                0.1469355970621109,
                0.9268276691436768,
                -0.3465602993965149,
                -0.022648364305496216,
                0.41475072503089905,
                -0.08441825211048126,
                -1.9518262147903442,
                0.21096816658973694
            ]
        ],
        "l3.bias": [
            0.26310014724731445,
            -0.23548080027103424,
            0.13661044836044312,
            -0.428067147731781,
            0.12546738982200623,
            0.23805348575115204,
            0.36510246992111206,
            0.28705140948295593,
            -0.4258944094181061,
            -0.25982198119163513
        ]
    },
    "input_size": 93,
    "hidden_size": 8,
    "output_size": 10,
    "all_words": [
        "a",
        "accept",
        "address",
        "an",
        "anyon",
        "appreci",
        "are",
        "avail",
        "best",
        "by",
        "bye",
        "cafe",
        "can",
        "card",
        "cash",
        "chat",
        "choos",
        "close",
        "coffe",
        "cool",
        "deliv",
        "deliveri",
        "do",
        "doe",
        "don't",
        "drink",
        "even",
        "exit",
        "get",
        "good",
        "goodby",
        "have",
        "hello",
        "help",
        "here",
        "hey",
        "hi",
        "hour",
        "how",
        "i",
        "i'm",
        "is",
        "it",
        "know",
        "later",
        "leav",
        "locat",
        "long",
        "lot",
        "me",
        "menu",
        "method",
        "morn",
        "my",
        "on",
        "open",
        "option",
        "or",
        "order",
        "pay",
        "payment",
        "paypal",
        "place",
        "process",
        "real",
        "recommend",
        "see",
        "serv",
        "ship",
        "shop",
        "should",
        "show",
        "someth",
        "start",
        "strong",
        "take",
        "talk",
        "thank",
        "that'",
        "the",
        "there",
        "thi",
        "time",
        "to",
        "want",
        "what",
        "what'",
        "when",
        "where",
        "will",
        "work",
        "you",
        "your"
    ],
    "tags": [
        "coffee_recommendation",
        "delivery",
        "goodbye",
        "greeting",
        "hours",
        "location",
        "menu",
        "order_help",
        "payment",
        "thanks"
    ]
}